<?xml version="1.0"?>
<opencv_storage>
<cascade>
  <stageType>BOOST</stageType>
  <featureType>HAAR</featureType>
  <height>50</height>
  <width>50</width>
  <stageParams>
    <boostType>GAB</boostType>
    <minHitRate>9.9500000476837158e-01</minHitRate>
    <maxFalseAlarm>5.0000000000000000e-01</maxFalseAlarm>
    <weightTrimRate>9.4999999999999996e-01</weightTrimRate>
    <maxDepth>1</maxDepth>
    <maxWeakCount>100</maxWeakCount></stageParams>
  <featureParams>
    <maxCatCount>0</maxCatCount>
    <featSize>1</featSize>
    <mode>BASIC</mode></featureParams>
  <stageNum>2</stageNum>
  <stages>
    <!-- stage 0 -->
    <_>
      <maxWeakCount>2</maxWeakCount>
      <stageThreshold>2.2261906415224075e-02</stageThreshold>
      <weakClassifiers>
        <_>
          <internalNodes>
            0 -1 5 3.4929398447275162e-02</internalNodes>
          <leafValues>
            -8.9837396144866943e-01 9.3452382087707520e-01</leafValues></_>
        <_>
          <internalNodes>
            0 -1 0 5.5553577840328217e-02</internalNodes>
          <leafValues>
            -8.3572649955749512e-01 9.2063587903976440e-01</leafValues></_></weakClassifiers></_>
    <!-- stage 1 -->
    <_>
      <maxWeakCount>5</maxWeakCount>
      <stageThreshold>-8.6290723085403442e-01</stageThreshold>
      <weakClassifiers>
        <_>
          <internalNodes>
            0 -1 1 4.8328608274459839e-02</internalNodes>
          <leafValues>
            -8.2201403379440308e-01 7.9310345649719238e-01</leafValues></_>
        <_>
          <internalNodes>
            0 -1 4 -1.5460969880223274e-02</internalNodes>
          <leafValues>
            6.3222134113311768e-01 -9.6444743871688843e-01</leafValues></_>
        <_>
          <internalNodes>
            0 -1 6 1.4873156324028969e-02</internalNodes>
          <leafValues>
            -7.4212461709976196e-01 7.3351097106933594e-01</leafValues></_>
        <_>
          <internalNodes>
            0 -1 2 3.4871189855039120e-03</internalNodes>
          <leafValues>
            -5.8561092615127563e-01 7.8793132305145264e-01</leafValues></_>
        <_>
          <internalNodes>
            0 -1 3 -1.0364167392253876e-03</internalNodes>
          <leafValues>
            6.5462106466293335e-01 -6.9076758623123169e-01</leafValues></_></weakClassifiers></_></stages>
  <features>
    <_>
      <rects>
        <_>
          0 20 27 13 -1.</_>
        <_>
          9 20 9 13 3.</_></rects>
      <tilted>0</tilted></_>
    <_>
      <rects>
        <_>
          1 14 33 11 -1.</_>
        <_>
          12 14 11 11 3.</_></rects>
      <tilted>0</tilted></_>
    <_>
      <rects>
        <_>
          16 0 16 4 -1.</_>
        <_>
          16 2 16 2 2.</_></rects>
      <tilted>0</tilted></_>
    <_>
      <rects>
        <_>
          16 48 22 2 -1.</_>
        <_>
          16 49 22 1 2.</_></rects>
      <tilted>0</tilted></_>
    <_>
      <rects>
        <_>
          23 12 12 18 -1.</_>
        <_>
          23 21 12 9 2.</_></rects>
      <tilted>0</tilted></_>
    <_>
      <rects>
        <_>
          28 19 21 13 -1.</_>
        <_>
          35 19 7 13 3.</_></rects>
      <tilted>0</tilted></_>
    <_>
      <rects>
        <_>
          30 23 15 4 -1.</_>
        <_>
          35 23 5 4 3.</_></rects>
      <tilted>0</tilted></_></features></cascade>
</opencv_storage>
