<?xml version="1.0"?>
<opencv_storage>
<cascade>
  <stageType>BOOST</stageType>
  <featureType>HAAR</featureType>
  <height>100</height>
  <width>100</width>
  <stageParams>
    <boostType>GAB</boostType>
    <minHitRate>9.9500000476837158e-01</minHitRate>
    <maxFalseAlarm>5.0000000000000000e-01</maxFalseAlarm>
    <weightTrimRate>9.4999999999999996e-01</weightTrimRate>
    <maxDepth>1</maxDepth>
    <maxWeakCount>100</maxWeakCount></stageParams>
  <featureParams>
    <maxCatCount>0</maxCatCount>
    <featSize>1</featSize>
    <mode>BASIC</mode></featureParams>
  <stageNum>3</stageNum>
  <stages>
    <!-- stage 0 -->
    <_>
      <maxWeakCount>2</maxWeakCount>
      <stageThreshold>7.5230472721159458e-03</stageThreshold>
      <weakClassifiers>
        <_>
          <internalNodes>
            0 -1 5 2.6140965521335602e-02</internalNodes>
          <leafValues>
            -8.9662027359008789e-01 9.5386159420013428e-01</leafValues></_>
        <_>
          <internalNodes>
            0 -1 1 3.4878008067607880e-02</internalNodes>
          <leafValues>
            -9.0430849790573120e-01 9.0414333343505859e-01</leafValues></_></weakClassifiers></_>
    <!-- stage 1 -->
    <_>
      <maxWeakCount>3</maxWeakCount>
      <stageThreshold>-7.3072296380996704e-01</stageThreshold>
      <weakClassifiers>
        <_>
          <internalNodes>
            0 -1 6 2.8024876490235329e-02</internalNodes>
          <leafValues>
            -6.5348398685455322e-01 8.7409698963165283e-01</leafValues></_>
        <_>
          <internalNodes>
            0 -1 2 3.8987040519714355e-02</internalNodes>
          <leafValues>
            -7.1909505128860474e-01 8.4388357400894165e-01</leafValues></_>
        <_>
          <internalNodes>
            0 -1 3 2.9531192034482956e-02</internalNodes>
          <leafValues>
            -9.1151922941207886e-01 6.4185607433319092e-01</leafValues></_></weakClassifiers></_>
    <!-- stage 2 -->
    <_>
      <maxWeakCount>2</maxWeakCount>
      <stageThreshold>5.7012412697076797e-02</stageThreshold>
      <weakClassifiers>
        <_>
          <internalNodes>
            0 -1 4 4.9673963338136673e-02</internalNodes>
          <leafValues>
            -7.6873660087585449e-01 8.3155858516693115e-01</leafValues></_>
        <_>
          <internalNodes>
            0 -1 0 4.5237109065055847e-02</internalNodes>
          <leafValues>
            -7.1018284559249878e-01 8.2574903964996338e-01</leafValues></_></weakClassifiers></_></stages>
  <features>
    <_>
      <rects>
        <_>
          0 4 99 14 -1.</_>
        <_>
          33 4 33 14 3.</_></rects>
      <tilted>0</tilted></_>
    <_>
      <rects>
        <_>
          2 35 48 32 -1.</_>
        <_>
          18 35 16 32 3.</_></rects>
      <tilted>0</tilted></_>
    <_>
      <rects>
        <_>
          4 31 28 33 -1.</_>
        <_>
          18 31 14 33 2.</_></rects>
      <tilted>0</tilted></_>
    <_>
      <rects>
        <_>
          30 0 38 57 -1.</_>
        <_>
          30 19 38 19 3.</_></rects>
      <tilted>0</tilted></_>
    <_>
      <rects>
        <_>
          56 35 42 33 -1.</_>
        <_>
          70 35 14 33 3.</_></rects>
      <tilted>0</tilted></_>
    <_>
      <rects>
        <_>
          57 42 39 18 -1.</_>
        <_>
          70 42 13 18 3.</_></rects>
      <tilted>0</tilted></_>
    <_>
      <rects>
        <_>
          61 42 30 19 -1.</_>
        <_>
          71 42 10 19 3.</_></rects>
      <tilted>0</tilted></_></features></cascade>
</opencv_storage>
